1.7116919883
2.75196943899
-1.09692926707
-4.8818576652
4.07901571544
3.83723081466
-0.00404264687151
0.712828059868
0.692707297252
3.80152851049
0.991821363098
1.68184039895
0.970338939415
0.0153122973376
1.50933313497
1.52793586768
0.355735625919
-0.405608254452
-1.66945482042
-0.706345975063
1.41898030868
4.09338575343
-1.27092360239
1.27536801487
0.00262651648532
-4.03290648959
-3.06670892083
0.346027635437
-3.99064306981
-0.462814425725
-1.70322491867
3.70215970606
-2.89337875851
0.861945574969
-2.07391759961
0.736137792476
2.28186284846
-0.0400870068836
0.01282373059
0.0679174517032
-0.275545759403
3.55089147128
4.11545153044
1.68039842695
4.46408219365
-1.15749417746
0.0996965857498
-0.576424864638
2.66359457881
-2.03317923409
-2.15156877295
-1.432385438
0.707271175353
0.688732411596
-2.74761865283
-2.70526068973
-1.14280962319
-2.24672453332
0.819883737374
0.0253336101489
0.609758788356
0.969251725631
0.632106938879
-0.348184436674
1.52622856682
-0.161419725878
0.878330568681
0.237274859385
0.00245439863058
0.310460432611
-1.86833109471
-0.319346204601
-0.321521895162
-3.99991664406
5.65471173412
1.30527317367
-0.716274058612
-1.70546968083
-0.124310723267
-1.27181754759
1.87955514717
2.18440145516
-0.746323396862
-2.81949327196
-1.44595879367
-5.68278947854
1.09665583239
-1.00346471363
-1.50113189446
-0.358107068735
-1.9795982541
-4.49401684351
-2.74660998054
-1.72300299426
-3.18119586622
-1.80329010715
-0.696716262329
2.94959042829
-1.78053174577
-0.0388475624593
-3.8405348208
4.7931289734
1.38715993013
-1.52357281926
3.38423843751
-0.0473213282003
-0.688415381367
-0.130883429131
0.495876167155
-0.000750190964438
2.73949939194
1.02817445485
-2.47999291505
-3.01736730031
-3.65443239016
-0.190971254414
2.01008101412
0.00219951174732
-0.139054073096
1.3221030849
-1.65150849796
-1.47736276822
-0.927996909976
-1.29701294533
-0.716387881513
1.47555284279
-2.07689043403
-2.63306459301
0.0615939401853
0.0417494007818
-3.69819346005
-0.662324484965
-0.735546881694
1.21401794066
-0.107620492864
-3.38897886354
-1.82766895967
-1.68140493842
-2.66385570267
-2.59523102331
1.16621372543
0.718795443245
6.79141246116
3.46677962476
-0.45789495008
-0.558371278636
0.721744047394
-1.30262315957
-2.21613703263
-2.81428867326
-0.00258668748461
-2.01634675598
-2.09316486413
2.79276823544
0.677456370801
1.72325371928
3.38253557999
-1.69945929629
-4.56557807156
-4.89400083432
0.0293278663647
-3.54579161677
0.772107055658
-0.771243853819
-1.12229614887
0.982571286283
2.47871780779
-1.78190222393
1.63807067267
2.00436140298
1.51065794548
-2.133249274
2.9981835344
1.98450129965
3.92637349565
2.30331744338
1.3247362975
0.400262060148
-0.906561966305
-2.10809526524
-1.19649158318
-0.94417723286
-0.0986805702127
-0.772081900475
1.43286962686
0.638568380639
-0.745929054726
-1.10284878543
5.24071490302
1.52850484242
-1.18150687831
-0.686801776272
0.694767953683
0.712180939944
0.52223221291
0.53981914075
0.664063264908
-1.36869570252
1.05515063448
2.96102560236
-0.666622769486
-1.93709905432
-1.88679090398
-0.351278921175
2.1356301736
-1.54335172642
1.36863388672
1.5300163704
2.84888902082
-0.114852637939
-1.6437896617
-0.0323181818429
1.89489644317
-4.27224946948
-2.37258161577
5.92752780176
-1.77986903291
-0.557844051204
3.00916706895
0.219072126747
-0.458496314039
1.80181132285
-3.72737425772
-1.96579868106
0.469062571992
-1.38191796555
-3.38221591885
1.617965538
-0.847217639959
-0.708536415842
-2.01239651895
-2.02937472552
-3.32539179165
-0.296277710346
3.56020281622
-0.710402015679
0.440406017597
0.80886683043
-2.85650809151
-1.42580953982
-0.820148928635
1.93857767223
-4.14487057476
-3.75571431273
6.33734543049
-1.14138487518
-2.25967333813
2.26865103226
-2.87389626865
0.740674876805
0.709343338852
1.33122899681
1.36755123013
-3.44038246847
2.39543240005
0.566260796363
1.23225942407
-3.76735425848
-1.56850760969
0.667726810156
5.27576863239
-1.46427288496
0.479949545194
4.7358330668
0.361934099173
-0.705463769012
0.630828626393
-1.31107770684
-4.3641481579
-0.935743406878
-0.7363587557
-1.05116376325
1.40033936034
0.0900275690088
-2.61781611464
-1.68920853639
-2.63361953236
-1.39151575302
0.627294044758
-0.791940102967
-3.5128041427
0.88685642883
1.41582870199
-1.80523078335
4.22455598396
-0.989290400525
0.49299752194
-2.06948350217
2.61561301912
-5.93045394703
0.733327246509
-0.026906575965
-1.29805858016
-0.708569601492
-1.01675110738
3.59080547192
-0.976680449289
-0.0574121345233
1.37108019789
0.0330873976496
1.63803724369
-0.563312287902
-3.4823926421
-2.81769060596
-2.5792064449
-3.99501370745
-1.97214135407
-0.20231525957
-2.69792714868
-2.21084157845
-1.52053640069
0.93115343012
-0.735291764282
4.18668670687
2.8780980097
0.698642053624
-0.84406872844
2.82400056169
1.0673731488
-2.42806181442
-1.44049382209
1.44634222792
-0.748391396372
-0.679796942969
-0.623208744038
-1.75016001011
-3.01081548051
-1.83018626671
2.38695539509
0.231997503212
-1.64165699989
2.79012120648
0.23836636214
0.73995698793
1.43831544476
1.27870005224
0.144311065457
-0.347533475491
-1.44783405833
-0.371108135008
0.70015395839
1.26051704955
0.990572574389
0.154193868624
-5.74721125231
-1.14556338664
-1.43665707705
3.16031166788
2.57585704513
-0.691444646784
1.67177203462
-0.763423221659
-0.72097792573
3.57356975264
-3.58727697959
-0.0697640055813
-2.7056073349
-0.652996497591
1.41403514993
2.80965772589
1.7533909903
-1.24400495661
0.44606235223
2.28664040185
-0.679201147613
-2.03171268643
0.728932122983
3.10120360563
-0.81267240174
2.67599238928
0.936555080916
-0.908947535189
1.99934547725
-0.755197308178
-2.79869760969
0.270190556575
10.4161451611
1.16107634942
-0.790038849675
-2.26283892295
1.24781214066
0.0264813607841
-4.32657667702
3.43921443852
-1.18763672335
-2.30641462921
0.106052549124
1.142605157
4.40860360875
1.51294992671
0.832887120719
3.1521547433
-0.813195819426
1.65338734061
-0.378537200316
-0.286960295548
1.92726358328
-1.06236894094
-3.06948262082
-2.5815627409
-0.473705443474
4.16922159815
3.68836440184
-3.25340990141
-1.01713315117
0.286266985084
1.672167878
3.71954296586
0.880716850546
-2.78826860702
-0.630173726952
-0.00848871121495
-1.46026535422
1.92696524681
0.639528149661
0.054008514738
-1.05595796478
-1.19383067052
1.43273043966
-1.38266390232
0.575731294106
-0.400189234338
-3.73766310867
-0.238680394762
-2.82241005065
1.34915922035
0.0280971533988
2.84441743328
1.84526745497
0.034800358794
-1.22667304824
-2.67122849504
0.36841462312
-0.576248855698
-3.77736493621
1.21418081832
0.909603010958
-1.90376859237
-0.638465058824
-5.45604106971
-0.0725722521836
-0.664717050995
0.359123499457
0.667524550846
0.127369784375
-0.7086356359
0.247884575019
-1.41078517683
-1.78396007563
2.12401725183
0.564917892767
0.58314819619
7.48667202044
0.514255095155
-2.18064061498
-6.23883962719
2.83877319405
-1.03546683211
-2.97858283654
1.04977172739
1.44877052622
-0.786364570107
-1.12376267051
-0.558322505626
-0.854767302605
2.07944986711
3.7251988283
-7.59141432305
0.474436575738
-2.89002400734
1.01727237609
-0.74999124994
-2.12500376255
-0.797090458669
0.710699771189
-0.914621998802
-0.580297856961
-0.713493630343
-1.78186839304
-1.36172373975
1.58149022865
-4.13824173975
-1.71950578805
-1.91389999339
2.33578547678
0.520063424225
1.06786911779
-0.679000213143
-1.33748858397
-1.77178516162
-2.31713434845
-0.649078346057
-4.04821440642
4.19625752733
0.414790482833
0.168278207606
-2.82791828981
-2.12684715626
2.13422710505
-1.50817908617
-0.60808433644
-1.14885319923
0.330036266601
0.735439894422
-2.05121085054
0.514155864725
0.332406488758
-0.408903578679
1.42501365538
-2.03522486151
-2.2169825091
-1.92605947447
-1.51050302511
0.00877417586967
-0.40177902631
-2.4561565291
0.57900935966
-4.72710259405
0.608837436797
-2.5075471186
3.92271687261
0.0155882499836
1.19742954796
2.78471047031
2.05768406733
1.40455809978
8.704466041
-0.737816790372
2.00210514551
0.0312257642258
-2.35988303102
-0.263257475103
3.90064566643
-0.0707105915998
-2.60231146608
-0.467420500815
-0.509597547896
-1.70120927708
-0.574032655442
-1.4559659832
-1.41720912833
0.734144494495
2.92514761303
-0.326840631224
-1.13916123378
0.278643235153
-2.21250756663
-2.10755055445
-1.10230616716
0.68800228574
-2.33200037053
-1.77568650079
-0.821635879886
0.284476108837
2.31428346828
-2.75067950951
1.63679333209
-1.52609400366
-1.09504907409
1.29407318618
1.15393211627
-2.14449432663
-2.29834538188
-1.72213838814
0.370421559184
-2.50495551822
0.174797917305
-0.629567300363
-3.11538915094
-4.99682467406
-1.5400077608
-2.64691148133
0.0915752281639
1.24532413467
-2.18993277931
-2.77309811757
1.76156764873
-1.80628490425
-1.08583931425
0.715956068811
-4.6818522231
-1.59888646391
0.423036549013
-2.7040102618
-1.35926097397
-1.63821580138
0.247337957473
0.712475571794
-2.75226951436
2.37482302802
1.71484959622
-0.394189018887
2.34601623994
-1.51396966744
-1.38337267262
-0.703309855014
1.43295696862
2.69885666741
-0.792336560092
2.09758749673
0.67378565618
-0.882909101275
-0.682338597037
1.27034117953
0.623521022375
2.13764485889
0.0526475445527
-0.732301294152
-1.48823040554
1.84802683215
7.04674177185
-0.680712805946
0.566830046032
-1.19020592325
0.272982678537
-0.354995441604
0.787859466387
-0.687212069312
-0.797116280033
2.51170480675
-0.211038093558
-2.22868404755
-0.289769469287
-0.720288285602
-0.942154848062
1.21802028974
1.77786764289
2.19862113232
-0.672280445124
-0.273074527405
1.79152984029
0.669294116299
-1.58782910754
-0.645230732837
-1.4278594646
-0.145924840666
-3.83108678678
-3.61977767823
0.48097822692
5.79464791877
-0.901467341274
-3.59176795528
-2.78760547138
1.06786425274
-1.16150106442
-0.0381665558628
5.19915050166
-1.97457990699
1.70204257899
1.23913617076
-0.0133044746556
-3.10605741102
0.708289157733
0.875541085462
-2.95795216947
1.54510401298
-1.17473261497
-0.726136793686
-0.759892410658
0.217775297373
2.50392427645
-1.32310800233
1.20725060598
-1.65246087224
1.12815615671
0.575311100303
-0.437558579851
-1.7917327209
-0.887821515855
0.56661915113
-2.03390622747
2.17840426351
6.18968241889
3.97197310356
0.030019857848
-1.63264333612
-0.371580464837
-3.27108325407
-0.4380189722
0.164317805807
-0.5266602551
-1.42025624336
2.52479390675
0.976356634007
2.15466679866
-0.065310452678
-1.26052746455
-1.46330364783
0.0859850095672
0.69444659548
2.50883294145
0.0651354802614
0.806637603658
-2.23422479195
-1.67262909854
-1.45876710793
-1.78220713117
-3.64129392876
-2.91786772153
-2.33357782212
-1.10846332322
0.897767833246
-1.91974404127
0.166402670424
-1.66902899503
4.24414280702
-1.97061599731
0.268255556708
1.98734751327
-0.641871056081
-0.698429763896
0.095618535261
1.25475712141
2.97243149445
0.140766659572
0.585629595281
-2.35296122324
0.144849934638
0.654697613496
-1.45811680393
-1.3921318543
2.42950929682
-0.0488856644146
-1.96712498075
0.971335892003
-0.545570349529
-0.025018902652
2.08408357971
0.261175889631
1.66640745776
4.02711066173
2.48160822624
-0.0604144316702
3.31150757656
0.477701577388
-0.681369622479
-1.17149361543
-4.04133000778
1.78682329569
-0.288964578349
-0.665338031991
-0.343501676988
0.725389844475
-1.51496022557
-2.58437000025
0.757808496105
0.0860922373418
-0.307869770118
1.15188070368
1.9845612159
-3.44585669346
1.78502916981
-1.42628762373
3.0109805769
0.04488498396
0.364213389168
0.707731978575
2.67432622046
-2.31371697289
0.0512042515367
-0.00859459077246
-0.637203528176
-2.29335109724
0.3821121246
-0.498087234543
-0.749560664807
2.55978641881
-0.473024124195
-1.62981572721
-1.55838903612
-1.65744297128
0.783687596294
1.79982567008
0.842137323722
2.44853395203
1.70029877214
-0.860159667642
3.21214913442
2.15379109944
-2.81567481343
0.144478842527
-1.0052856724
-0.724192683378
-3.16729894
-0.610847478822
3.01619256366
-4.16384547366
-0.829368705665
-1.3750431136
1.98473136003
-4.23543965251
-1.81550289073
-1.356023627
3.14679451763
1.44809534372
-0.141668346323
1.97187689995
-3.48939058989
-0.0585644050592
-0.0564802196776
-1.44151674026
-0.0817426226023
-1.12977064657
-3.95819468438
-0.661943094258
-0.966015440141
1.34449044192
-1.37185431441
-1.49087645184
-0.250538837264
-0.00362983576362
0.67509639173
1.5129624251
-0.630868938206
0.411111641133
-1.27852112759
-0.067143814225
1.21465505491
-2.54782339365
-0.71858538391
3.69660002242
-2.56774117603
-2.80903376291
6.30076536506
0.929540182331
4.25739286287
-3.65775378182
-1.00874778083
0.19668366669
-0.50188255011
1.44539282713
-0.711532434186
0.111413130816
-1.53835636466
0.68310817941
0.462293200429
-3.98186385912
2.0416095107
-0.00390263529601
0.407140368889
0.433253405081
0.278901387932
-4.47444842337
-1.25578913769
1.03369647295
-2.53287851702
0.979188708882
0.0378218530389
-5.18570582406
-1.50363918006
2.91442751336
0.373644987235
-0.281274611972
0.0182298059964
-0.677919382225
0.695496665745
4.51579548823
0.404769027999
-3.51387151494
7.13194944297
-2.18752758097
-3.10637380624
2.88372782457
0.387451409718
-0.209314749681
-2.84573058869
2.30968599713
3.34250610946
1.96198631683
3.1895178045
5.24476101238
-1.79660757604
0.728311939927
-1.43049863499
-1.38419970861
-0.0357599238617
-2.38012711528
-3.60908563609
1.41228455511
-1.17522847259
-2.51846484609
0.505825401557
-0.219315619605
-0.0224555938857
-1.36486908095
-0.334678604973
1.47620272238
-2.40317653892
-2.40839928936
2.20466741571
-1.8105215964
-0.683040873689
5.85955947798
1.96873272228
3.09880888177
0.45272484398
-1.3759750171
0.256476460694
-2.78440722618
-1.81180070324
0.00223498313214
-0.336115417146
-0.0582761595267
-0.605058074849
-1.42449921211
1.50975513261
-0.265275286811
0.768421547205
2.52352094452
0.373516706679
-1.42187103974
1.20039604332
-0.0105425144401
-0.0371585667532
-3.55187808496
2.01193177076
0.0362377382719
-1.32249205309
-0.896252691543
-0.0138108607716
-2.19669205582
0.0417687735354
-6.14644316149
0.471886438511
-0.00206368284412
-2.61224746555
0.577339647019
1.06513924635
-0.100483050903
-2.26314902893
-1.90380703762
-0.483397917694
0.086921749763
5.8786182711
1.3639437865
-0.0369933132784
0.203317683386
-5.39626658308
-2.43724957782
-1.44134906018
-0.0522099952082
0.506797081901
-2.66549708786
-0.922033717731
-1.53588278467
2.85591003489
1.50161772109
-1.6583697377
0.00409870376404
9.67051760411
-5.33518203143
-2.46940703027
0.180544451734
1.12549531198
-4.09725143026
-0.697438644707
-1.4311206711
-5.13559418604
-1.41450567538
1.26062372163
-1.59200858381
-1.2530716141
-1.05938819094
1.68688532307
3.20338987123
-3.40307227144
-2.23054024427
4.3542065947
-0.72955083205
3.3042034168
-4.38188260419
-1.33570499911
-0.185916600325
-0.708483669271
-1.41972461469
-0.723507345599
-1.51871087104
2.6044395867
0.970382475863
-1.22584769723
-4.8795593345
-3.02560154601
0.542022030049
0.775707172001
2.39885246224
1.11451564018
-3.14126274766
1.50543893767
-0.28965813481
-1.44959025614
-0.732271824207
-0.541958996556
0.43756220329
2.33313264417
2.16663708109
3.1314844971
6.20034374029
-3.6915587704
-0.703465519302
0.342251924501
0.814115337415
3.07069650564
-2.95117790264
-1.88756540383
1.96915909697
-1.23808636803
1.48087546261
-0.923666116868
1.43195951656
-1.11876559111
0.667059004707
-0.473875032838
-1.77349203424
-0.0209140877306
-2.39096453642
-0.171346341746
2.01190801523
0.295877456091
-0.650704759422
0.0150647503132
-2.836598566
-3.80296181121
-0.653545433098
-2.7163840534
2.89617777904
3.25575354969
-0.507968274103
-2.93464738302
-2.4481877595
-0.358512267774
0.0364893788127
0.714937832045
-2.27965874888
3.28869661941
-0.230277313599
0.5680660238
-1.59843011518
-1.42137121447
-0.558208694578
-9.35402594558
-0.715457508122
-0.106522858308
-0.170205634418
-1.01029736397
-0.950511518727
0.134175947291
1.92894798929
-0.0374510503599
-4.08632728976
0.677684563994
-2.92280523831
-1.36424621122
3.53528238808
0.586571844601
0.931297598344
-0.0833584465209
2.70867801729
-0.637979900122
0.45753530254
-0.0522162093684
0.0456846784248
6.54526602288
-0.525779026555
-2.12566365029
2.69782791051
-0.106285503478
-0.18421750712
1.69738767877
1.45967738105
0.00793330481523
-4.66759120929
-1.22174494201
0.362004230013
3.21306218004
-1.30947918126
3.5268795886
0.538187162197
0.0425497901176
1.32970359658
-2.05097415476
-0.0667197086446
-0.912163074744
1.75453614043
2.75953548131
1.7152105837
1.71899564421
-2.23032922375
-0.62091190858
-1.87554599151
-2.07303526502
-1.90086698224
-1.02103451572
1.45708329082
0.457624626524
-2.08104806779
-0.839850672225
-2.8935962444
0.629314621475
-0.0251300927776
4.23499193223
-3.41419270304
-0.743491325369
2.82124022808
-0.728963878963
-0.421246600497
1.05615897089
-1.91146690706
-1.53580951204
-0.982750265901
-0.589040305427
5.01150288091
0.00315860987246
0.508068421577
7.84234031874
-0.0589153237171
-0.405053357502
0.94321043744
-0.559758801993
-0.520455558478
-1.00499900735
2.04601624526
0.311891966596
-0.0646720443348
-0.33442838215
7.08950716213
-3.62595189487
-3.09442995569
3.18801097816
-2.89209989587
-2.78476001937
-3.42833341972
0.186920264155
4.00531787952
-0.502320055311
-3.15406450127
1.76858049444
-2.10911897367
0.886830005991
1.59759803102
-0.510735498976
1.32815699901
-0.254352558
-3.16133774996
-0.463004867792
-3.4816067072
-1.02623950305
2.43758593018
-1.14028808982
1.47155938066
1.56445751913
-0.710270040807
-2.49096455859
-1.21550409113
-0.0922180808642
0.789464413539
-0.318407074539
1.37944279217
-0.703532066378
2.17436160025
-0.0854130272442
-0.657925267763
0.359130457387
1.48841863521
-0.10196284892
-2.82816181358
0.0113300050522
-1.38405003104
-1.01012817825
-1.60947823158
-0.17716661367
-0.679042686628
2.11992010101
0.478632400372
-1.08141300768
0.486042075509
1.17000049814
2.91953208442
-1.40735008286
0.846242873584
-0.234810015742
0.66272330344
0.875790110247
-1.45866405559
-2.54988536773
3.25912494513
0.132023636192
2.56797759839
-0.408395473939
-2.60143250044
3.47334538135
-4.15806386895
-0.0704293460079
1.16234757297
-1.14615160101
2.06222630209
-3.22058559245
-1.04711671072
2.21524938918
0.406525482543
0.567560001483
-1.6325924019
-1.32488946512
-3.23835598919
-2.63614434999
-1.06132798946
1.10260529926
0.75317502254
1.25298523636
1.44919542464
0.249402295124
3.58716019508
2.10025266229
1.78568438078
0.809864680928
-0.729390923869
-2.74676084626
-1.37453404865
2.4349156033
-1.40080564239
6.14992018783
-0.093595284986
0.0233246978886
-0.368518316661
5.33397617737
-3.12586878254
-1.30747542053
0.772786209646
-1.92614385997
-3.41822629089
0.666269083432
-2.76240464217
-2.98595779963
-6.62196276314
1.89013780139
4.3382163108
1.91383857537
-0.623151011979
-1.05132063686
-1.58112413125
0.535989013111
-2.78051097771
-0.308487004183
0.697753745286
3.42670284805
3.46467740073
-1.34176705417
2.08941493347
2.12711068564
0.266544270842
-1.28779261074
-2.29988339621
-2.24899228746
1.59903805064
-6.03021077732
1.47079968438
2.01585989891
-8.34751112626
-3.23183828819
-2.42563407782
-0.416796072768
-0.143643439876
3.61317653546
3.53833643832
1.70030703748
-0.000533249715539
-1.69438709063
1.04037874402
1.24850570723
-1.37320961575
5.15527564572
-2.15485407978
2.45225068326
0.515609759844
1.52629007477
-2.8867282681
5.08068851075
-0.675114597813
-0.200071222105
-2.41207878811
-0.0220163472019
-2.18035814242
-0.305604831287
7.55510278434
-1.4009399414
-1.94285450392
-1.92395236952
-0.678629887854
0.922314094736
-1.41992972413
3.17536871671
3.74839468819
-1.19999830704
0.0756049210874
-1.35065979978
3.17432423064
1.85245837877
-0.680777550542
-0.822028514672
-2.44990733468
-0.577371135792
0.101661427845
-1.78373260635
2.75887589195
-2.50977468089
1.52821288841
-3.00846498456
1.16127209033
2.89722728335
0.226255955249
0.696645550621
-0.0498493087838
-0.440388198848
-3.57230118318
1.02543584796
4.73921030955
2.28707893212
-1.00987990564
-3.72664148194
-0.717368925801
-0.627314349621
-3.1504737174
-1.49392268684
0.705802615
4.19441321656
-1.76596719368
0.499748385773
-1.93811209714
-0.835677117679
1.38924550277
-2.09003876204
7.27528545887
1.29565499038
0.527659696415
-0.670548816145
-0.525057618366
2.80331042428
-2.9404242093
0.458235403336
-1.20586646776
-1.0510014555
-2.6843499217
-3.93732831352
-0.28481153344
-3.56018018896
-0.616990299651
-3.14236555881
3.54650416938
-3.77608169631
3.28899533782
0.381232256116
-1.2114733491
-0.564279961503
1.01265930263
7.76121893574
-0.818567342932
0.0734893104358
1.28631742401
-1.62833132504
2.80414655762
1.04506765505
1.14315442207
-0.731619700815
-2.05880368802
2.34378087113
-1.31163715819
-2.07001811987
-2.97430405217
0.67992226397
3.97483119877
2.4872006983
-3.1198068599
0.331102868818
-4.23433197387
2.03395781013
-3.39318255752
0.771194932525
-0.827699271938
4.65987819778
0.65923340676
-0.996638952586
0.828066612379
5.96576568221
1.70267118382
-6.05239399792
-2.30952741663
1.79998336444
-2.07841890501
2.88107996183
1.18231454709
-0.668107292912
-0.0174951924391
0.725861570366
-2.58386301046
5.55555075474
-6.73357371754
-5.15331974712
-0.213781754504
-3.31658204323
-0.791452562483
2.8978986407
-1.49392274485
1.44951116097
-2.43607492867
1.15441703665
-3.61795295577
-1.60136053641
-0.651943656194
-0.349584440566
0.308838369371
-0.719710719269
1.78349673574
-4.32636861131
-4.00539639728
3.31216830314
-0.018946634874
0.750534843523
2.22095643076
1.99073661385
0.978102581182
1.82873452349
0.804523599568
-0.312599254782
2.09167477056
1.64224633233
-1.38723180855
0.817997702146
-1.83101580452
1.74071785332
-0.131886365229
0.978834646457
0.0488516185078
-0.615657883641
0.805566804024
-2.63716763319
-2.07742762541
-2.85572300529
5.07854089261
1.57172818376
-2.96464549987
-0.363687347177
2.88537597867
-0.49550772496
1.1564432736
0.282154608427
0.143298405438
1.27633433786
3.3516425354
-0.0285392371937
0.727554002306
-1.34116014135
-0.806131735914
-0.708916059639
-3.16782627394
-2.35685493274
-3.86051237438
-1.05316877744
7.47467466778
-2.73976083236
-2.6260268217
-3.91944446675
1.36321928069
1.97467385851
-3.11817916627
-0.0587128945963
0.00554797625023
-2.60312607479
-6.14205746952
1.53033191984
3.01465832821
-0.115448178929
0.0668449558213
-6.20028450448
0.995615272456
2.05775087682
0.556314230881
-0.0496476601197
3.74414317457
0.738697093441
-3.65719439113
-2.74147811352
1.79519975553
-2.26988979447
2.51010416671
1.37525045201
-0.403053221503
-3.27432019258
-2.20990765813
2.9736775082
-4.40706129804
11.1015658957
-1.06821738432
-2.01947471722
-0.221103833888
0.317001528766
0.869067476599
4.10181423583
0.121588825079
2.38341483698
-1.34256050032
3.58261866549
-0.948104185439
-3.77071172732
4.964886176
-0.653311118247
-2.08267980912
-1.64675968466
-0.704082805915
-4.73193995474
4.10797223638
5.36168591236
-0.364612003796
-2.38551648702
0.754515720075
0.716785758161
2.82029486915
-3.33000341751
-1.20403847086
-2.72783236289
2.37258903061
2.63533288786
-0.67872683538
-1.41820494041
-0.292802214426
-0.125004411248
-0.517799304172
-1.10045491883
-0.0401263678353
-1.44521386182
1.33685039572
-1.42231310117
-2.34306243131
-1.35151820388
2.93364804163
0.2235345925
-1.34344946009
-0.613609444592
2.15358151128
3.86950863994
-2.0260990288
1.52483205621
2.54269176913
0.3946090041
-2.51959325677
-0.0877358754959
-2.97367008292
-1.07089205573
0.0345121860866
2.31583471142
0.0347219984785
-1.42192740295
2.09869563238
0.0737687932631
-2.13445355665
3.7447406088
-0.38750333697
-0.756046467182
1.8808820746
-1.37418870096
1.68890929006
3.51197265611
0.654340127766
0.715304437101
-1.14604007426
0.348333424134
-1.50419077118
1.24436216602
-4.89700585855
2.15889310487
-0.708460047264
0.853940115266
-0.266058459441
1.3679443194
2.57532131877
8.3105165102
1.81314720623
-2.03822942698
1.57707126699
-0.740125357139
0.00225954770763
-2.67479196383
-0.194614343011
-0.774988730447
-4.63811395404
-1.45437845024
-2.53004346616
-2.90915003689
-2.63499212761
-3.33025207701
1.10634327767
-3.12940659615
0.0112896797051
4.27252938427
0.341706537778
0.560908902057
1.35231537816
3.52106445136
-3.40607558974
2.10496034196
2.55206262332
-0.00308015889556
-0.228753048197
0.539389842751
-5.31812905006
-2.45110499782
-0.726900751247
-1.10298216738
-6.96455265529
2.29743806219
-0.463634438104
2.52019551688
6.91044981711
-2.88386762276
-2.63842042499
-3.53594799824
1.46099313079
-1.60277220631
-2.64205069297
0.69563432483
0.380041302529
5.11507687336
-0.748480821023
-1.42634823292
-0.805391612288
-3.45663930196
-1.73163226644
0.0087864613818
-0.693084341158
-2.27418386213
1.69452368074
-3.48983865164
-1.11019765757
-4.54124911625
-5.73916567696
0.903622819079
5.28335027516
-2.55438594084
-1.41687866546
1.55175577053
0.556138739099
2.57595248762
-1.42329371682
2.54476419142
4.36036504555
0.231987636422
-0.435157041067
-1.08013744823
-1.18918082199
-1.24908663646
3.17707989426
0.790773272347
0.890361470086
-0.619916113892
-0.257938421016
-1.47546666651
-0.180752261461
-0.862094283414
0.683580465151
-0.917555999047
-0.00845288774421
0.821691146463
-0.207788998976
2.35091672649
0.00900442235526
-0.991794006733
-0.417642919971
-1.15119451361
-0.582154119044
-2.41487427534
5.13390681283
-0.668626846182
0.840398187562
-0.016949887309
2.24451438822
-1.05158851418
0.3659006441
-0.717067825757
0.694228949197
4.22277036316
-1.19315058703
-2.82028578911
0.0120910648081
0.191057461855
-1.89447068297
-0.777247319438
-2.72877714587
-3.27686720427
3.36097020993
-2.43086068233
-1.90785836104
-0.0137266315972
0.0429844275319
-0.566301357577
-1.96514996806
3.21310921022
0.11402902012
1.38849949471
0.798151467689
-1.31658571492
-0.204185431093
2.04501383234
0.332924792898
-4.25580353484
0.00186384796421
-0.722211787796
-5.32796253443
2.90148410134
-4.81282369688
1.90245233424
2.9202815203
2.56773837558
-1.36714995355
-0.519118655179
-1.86241543084
-1.68239281327
-2.0548623301
-1.36102110758
1.56665588526
2.29048974705
3.06309407761
-6.7647513036
0.6528849051
1.71382961605
0.522988862184
-1.00703767205
-1.07341630576
-5.80412334232
-1.10811624545
5.66652666513
0.157181412072
2.56553660454
0.744555722482
-0.569229060857
0.0904587942623
2.08985496339
0.757208182159
0.646412431402
-1.5378393246
-0.72996339832
0.0595638478209
0.00241049002471
-0.833384870556
-2.4681139906
0.658973573927
-0.637519886408
-0.20081915836
-1.21731808166
2.91198348583
0.101029788431
2.64258431154
-0.365105767628
0.0223445223746
0.770546305952
9.56145579677
-1.80347005368
2.42203615294
-0.57407347093
-3.9556098622
4.39940183283
0.529459182124
-2.19361867758
0.997620162799
0.774813791051
4.95722594746
2.51615590571
-3.10157189138
3.73122356881
-7.58112285736
1.43452717946
-3.06704841337
3.15308263978
-0.921885951817
1.72269320787
1.59279290669
2.39019566367
0.569423856427
-0.0120062079589
5.80677897097
-1.52369305751
2.13973005236
3.40651229342
-0.6857104504
-2.95620990708
-1.24492761798
3.3411850136
-0.764321338881
-5.7105007251
0.00715902128993
-0.031905056866
0.0101810562614
-0.683117349931
-1.48326309603
-0.508818690357
0.576880786889
-1.74645469081
-1.75394087537
4.15823943029
-0.490835120232
-0.653563732412
-1.81042463518
0.114224599677
-1.4462572564
-2.77277759147
-1.33024468797
2.65032637245
-0.378666024705
-1.96373286366
-1.04215398988
0.634894701648
-0.0478580736235
-1.3530216759
-0.628590615842
-4.2007138056
-0.699474696446
0.182845318241
-6.60995592594
-1.24046391541
3.34093992429
2.17133476355
-0.638522469523
-2.94847762883
-4.20462784484
5.16235628172
-3.02678854063
-0.194135952046
0.206759635143
-0.701939862631
0.0182333839766
-1.79595063213
0.820468573877
0.0566615244246
1.96134473989
-1.98482970517
-1.99569958343
-0.70216628494
-2.42592265207
1.43854127666
-2.54941080591
-0.228784705235
-1.77028113428
-4.80183911325
-0.053237791028
-0.944354928788
-0.926459194885
4.34313588555
-1.30137099479
-1.42890050391
-2.76644634085
3.13127759205
-0.290412448511
0.72260535056
0.885147118169
0.164259538276
0.515671553594
-3.02164368149
1.28148700539
-2.82959296409
1.57733637981
5.15232133002
0.666996049786
-4.12745239485
-1.33191998969
-0.105353815632
0.670166556813
0.0987478473968
3.03258355837
-6.00829040613
0.748834533955
-5.08512793673
1.292469463
-0.0802411213018
-0.653799654327
0.169216901622
-6.34130710273
-1.3986799128
-4.41743839094
-9.17025680909
-1.27648250172
0.455019663437
1.92880253733
1.9211554385
-0.69886095797
2.22210375287
2.0376887071
4.96622385016
-3.86497460974
-0.151897199602
-0.362120247906
0.402787703598
2.13816452708
1.41972592501
-1.39759937721
2.24400502001
2.28979777605
-1.13285985365
-0.0649795417913
0.864984288757
-1.89101107254
2.20605462155
-0.936277307057
2.58930804645
11.4348897269
-0.721186448005
-2.08675965947
0.920769098554
2.00993121515
-1.70060554372
-4.78712649759
6.10797127635
2.7431400547
-5.09860941508
4.07112186413
0.203313015119
4.20411679009
-0.209280632886
0.562796739184
1.75986303334
-1.10494747852
6.53007078213
0.632428412242
-0.521388895351
1.19763386081
-0.0105601913725
0.340234487925
-0.727421968672
1.64139402466
-0.199880703398
-0.0538285384285
-0.909348215359
3.21202196328
1.37207976002
-0.437153387126
1.29279680948
-0.185500381211
-1.28584555493
-2.37489207112
-4.49122779544
-1.87970675494
3.41094158973
-1.16873050893
1.38255024963
1.32892963944
0.0574833539004
2.1030532035
1.07877281814
-0.665873677756
-0.815064188624
-3.1968151727
-6.4570611694
-2.98683361808
0.0225615582838
1.53122069206
-0.406975952297
5.67621317181
-1.4074390302
-0.247301967493
-0.332467790978
-1.19831348318
-0.384767539416
2.07904121695
0.0439599894093
0.756524940614
-4.88522756754
-0.0775116044987
0.00988004238612
-1.62146729718
-3.20605149753
-1.49599154138
2.0509770261
-0.0425642119081
0.266211283484
0.992085397168
-4.14672680351
2.23896881021
-1.22882960853
-2.90702763644
-3.22602592307
-2.5907340554
-1.9608542482
0.554574312605
-1.36632482415
0.758602854891
-1.41233849582
1.44364103832
3.7301852951
0.45246383453
-0.726160320938
-1.52932742468
-2.22935079114
1.37358851672
2.57981432398
-4.84760663335
-1.93480216492
-4.97237098232
3.26678496963
0.673164911937
-2.51747109695
1.02616503006
0.174609873483
2.44337687709
-1.55806295367
1.38369765181
-0.0846709818716
-6.17092583598
-0.382748006535
-3.19463871899
-2.27433036977
-2.68018228566
0.0990690947104
-0.959485100276
-3.0690765718
2.39250010085
0.644313568114
-0.78786892025
0.873311331775
-0.806433302204
-3.50513736175
-1.50734785145
-0.695153512173
-0.293568721315
0.0445991091446
-1.06356429705
-0.531324492783
-1.50099923924
-2.75510301989
-1.35688377272
-2.50363804234
-0.242739951492
-0.157136499191
0.0291109552847
0.566263152111
-0.680862710049
5.22076444973
-1.44539496894
-1.09705710557
-0.860765459308
2.79171266745
2.2263973058
-0.665266222057
0.866883041926
-0.776362467031
-0.0356218509508
-0.190863140446
-0.948391666017
-0.411647097952
-2.48457312744
-3.2829119301
-2.43554810458
0.318648724194
0.233631254903
1.77188312215
-1.12261450231
-4.9484918624
-0.654000879843
-0.733949394945
2.04392291228
0.92624108965
-1.07420579996
0.000939757255225
-0.514886143659
-1.00751234302
-3.42496060291
0.79473345516
-3.37802694979
0.485963934802
2.99667470323
-0.169779283576
-2.98830570716
-4.49155965577
-3.51915513806
-0.67870649174
3.6162353057
0.440196449851
0.447287955738
1.48852518707
-0.00852761868729
0.785021335663
0.104732119871
-5.30149564582
-2.75146888565
-0.964527411746
1.57185464081
-5.46278827609
-0.215705899082
-1.41344183707
1.07087266704
-2.4407547838
-0.53595506858
-1.21401450431
-0.414495488026
1.13980876476
-2.28261882595
-1.53025685194
4.09283015023
6.81605031864
-3.25712633042
2.06552684561
-5.37434334438
-4.28707046347
-5.36666063789
4.55188371979
-3.75544597643
2.27411489395
1.04816753228
-1.37670229431
-6.27069155046
1.77927406314
4.80932805892
-0.400991252325
-2.86418098152
-1.96607151028
2.14082234729
3.70547848061
0.586626327799
-2.79780656582
-2.19023583801
-2.60622900514
1.42778162005
-0.370105348249
-2.09332024717
1.46723585775
-5.87400494824
3.15401502778
-2.30695149265
-2.20420867059
-3.17097964584
-1.38748897499
2.93366494554
-2.30882625755
-1.24202501897
-0.0640696448796
1.05267588978
-1.5056019514
0.667538678072
-0.692543161126
-1.86376636629
2.78667038719
-4.56116319223
-1.56954840097
1.47819664886
1.39720367776
-3.90171624694
-2.97262622354
1.04997383751
-4.97625620146
-0.87154318457
0.498995777617
5.45528592644
0.639451192234
2.33510896133
-3.46905486978
-2.11116708881
-0.0733539679225
0.978951671165
3.0528321225
2.08723234429
-2.26117176292
1.71533499544
-0.836204278477
4.22137003177
4.17345381032
-1.20702724296
0.00295360254963
0.183394047172
-0.496064684706
-0.45202595431
2.81838219223
-0.583480815176
-0.126697252699
-1.98638828176
-2.11217341202
-4.02415749646
-1.65676842372
-0.129692475166
1.72002597543
-2.7950687059
-1.17674536203
3.10940954028
-3.02887484174
0.0485448219034
-1.64037769476
-0.690143089123
-6.02688811474
-1.32233934471
-0.197143655597
-1.39603568123
-2.73455701834
2.89210125338
3.1763045506
-0.51761061026
3.15508850168
-1.75244861752
2.01881709066
5.48394391983
-1.64952113435
3.7993866719
1.82546592147
-0.694847220848
-0.10799922952
-2.34731556325
3.38864170779
0.370127432715
-0.677434313461
-1.42040504565
0.723722853362
-2.07437082878
-0.781428672499
-0.013923828251
-0.703143596115
-0.687796362224
-3.04673218177
-4.80764879315
1.24716538335
0.734997090736
0.0594179587801
-1.86621686502
-5.74632129732
-0.242173114408
2.89873105509
-5.98892576269
-2.74092251717
0.884683712748
2.02333796248
-0.592419428639
3.60401917256
-1.46939171995
-5.19726508099
-0.743712393483
-1.97982332145
4.3983842341
-2.73273780885
2.07371774999
2.15046944965
0.0493649245498
2.16957926082
0.701089890621
2.80533968943
-0.840687609234
0.645171275202
0.969264748385
-0.671934697514
0.770659871896
-0.323069658624
-0.752263193884
-5.74678998639
0.0232135205794
0.367321053778
-0.932840893621
2.41412986057
1.08941504852
1.10632109275
-6.34133112839
0.937207044889
-0.0201888757183
-1.84912260901
-5.18669791926
-1.32297913689
-0.022421234059
0.0192247720244
-2.93401168724
-0.912623707755
-0.49666928149
0.235201702025
7.01085608384
-0.0568033938757
-1.1718707303
-1.57139954619
0.0289850113401
-0.945975742751
-0.111692335883
-3.52545522782
-3.3118008256
-0.917847924714
1.0583249904
0.440523966945
-2.17440313698
1.29013012317
2.38209190156
-4.43354772095
-0.309377759928
-0.762400863505
-0.0259305223947
0.15995715478
-1.97379202408
-0.628835945239
-4.00198345077
-0.654198550251
-1.38916452691
6.65594963523
1.14973443718
1.29042061306
0.966296058863
4.53881905594
-2.51794205548
-0.939767439211
2.56319833711
-3.87602446131
3.45006711318
3.47363728022
-0.704377063704
3.68358246437
2.69401571056
0.865936631205
-4.31977330524
0.194979071806
-1.39344765109
-1.48816125263
-1.50502242349
1.58412457429
-4.65706083502
1.59434521957
-6.46528978242
-1.2714046173
0.237159953253
-0.00534196041568
-0.428171068064
-1.85267427134
-0.548308602655
-1.29375960405
1.84158977331
0.694139496531
-1.01839231062
2.78098017999
1.47432494133
7.16799711971
-1.20579378953
0.570934746605
3.84387100508
-1.93848595495
-2.89134708226
-2.33751472596
1.83237595838
2.68127551849
5.75558477745
4.63685700067
-3.09758607076
2.01338191844
-0.819894529529
-1.17193697819
-1.96733187828
0.10977556077
-1.36786999558
2.77342476455
4.6922923513
0.0125240757914
0.224803675769
1.35875403873
-2.6497368292
-4.09343509116
1.23589332548
2.41147210288
-2.34244026823
-1.38752703881
-0.122492394752
1.11944560968
-11.6021289064
2.79288714478
0.650578944021
-0.966864554833
-1.71596381371
-0.493189506962
2.87939454877
-2.8399253704
-0.763700079774
-1.30749638381
-0.741120284612
-0.759455435467
-2.75860574715
-1.683165031
3.6104011354
2.32780342031
6.16983246889
6.64579453642
1.32419807403
-2.50668063204
-2.7402443955
0.698322600939
