0.432455693391
0.642621732316
-0.0339513216356
-0.513859114935
1.08684153623
2.6271694077
2.06092744337
2.93608876817
-2.51633705211
1.61738302577
-0.263902125036
1.66260546313
-0.925207780927
1.03287214644
2.84346860581
-0.377660239333
-2.31720114078
-0.626335523979
0.496539117233
-2.75078358894
-1.65474872863
2.94593320144
-1.76929093474
1.99544988867
-2.86993095394
-2.04836408662
-2.46956125205
-1.76177371204
-1.35669610749
-2.29420560119
-0.874156950894
1.56051852926
-2.36489572547
0.569976085836
0.42699873866
-0.486079332252
2.00943367592
2.15420399932
1.6166121616
-0.0719523425926
-2.06384409169
-0.89274345142
-1.71521246529
0.330945696531
0.877500195616
-2.74298746452
-0.791899051873
0.397176222277
2.48963136934
-1.16931195012
-2.28039417033
-2.82012719962
0.903688966647
-1.12400883128
1.55700346586
-2.35316665764
0.621420097918
1.76619056965
-1.51457242243
-1.50812904533
1.17410959608
1.31871205242
1.09842325382
0.930815968301
0.197718630052
0.990664112285
-2.1605891614
-0.307508588625
0.947801552076
-1.06060542847
1.64768874296
-0.754681627001
-0.250652640678
-2.25012264397
2.37604039076
1.44791598811
-2.31989600905
1.61706408758
-1.23472036823
1.45237830559
0.584151174144
2.012270853
-0.692221092771
0.275916952701
0.479485897149
-2.86566332261
2.66412506342
-1.29674710342
0.880380138763
-2.78889895736
-2.40350875527
-3.15659303292
-0.72044171047
-0.693861841492
1.01102918601
2.08707402408
1.51016949423
0.513414466012
-0.805554548129
2.38143018975
-2.37664945469
-0.736582335406
-0.653118472182
-2.29808263184
0.832732531361
-0.608498372588
-1.03317272885
2.41093600554
2.07932564397
-0.00948957498646
0.96817772376
1.60295864941
-0.251937311139
1.31634731007
-1.03290928485
2.41281253621
1.65209787362
-2.05428040088
-2.89328906761
-1.75957987435
-1.21620101428
-2.00344575207
-0.28769180747
2.32533102511
-0.812332604115
0.0396473822688
-1.78664852672
-2.17521679223
-0.473689748826
-1.78688252803
-0.468590043235
-1.19702377644
-0.033893691167
-0.353203321593
-0.238491796798
-0.496079656778
-2.23653911065
-0.262036323965
-0.772631170202
-1.18529240036
-1.13454169209
1.44350958828
-0.963476454863
0.446992818687
-1.65435989675
-0.675726356362
-1.23313785182
-0.121383483157
1.82337957374
-2.88942789013
2.24127875698
-2.27563209504
-2.63795326308
-0.660549905346
2.5514576954
-0.671524365476
0.721786661826
0.439635505329
-2.30567780245
-0.0056248788448
-1.55604499559
-2.08103433615
-1.06537455559
-2.76561797027
-0.221757142736
-2.03300854875
-0.808769512175
-1.27127323822
0.338929186278
2.81154440959
-0.225900892884
-1.84576166101
1.38313749745
-0.520888540562
0.479231357912
2.36561927034
-1.50349120635
-1.1628072562
-2.53307524267
0.921889564317
1.13851490697
-0.45091976618
-1.28438729327
-2.68330013287
-1.92653241168
-1.24158040858
-1.13621184417
0.787125471702
1.40961569456
-0.474802218223
0.65813101747
0.366935470741
1.28503985359
1.06235513014
0.811111731218
2.20188894784
-1.68980149661
-2.16429562781
-0.354079098094
-0.93085218189
1.83632949302
1.55906261683
-0.876946694824
2.07791998823
0.829199534829
-0.879606387942
2.25034319253
-1.46918401029
2.26785655584
-1.63876874695
1.30769376181
2.21386283217
0.626817787338
1.94889993881
-0.323698049679
1.74275385161
2.9104375931
-0.801622414551
1.98487065825
1.34794561053
-0.87599992776
-0.206512763614
-1.60106897355
-1.24478233201
0.354517748139
1.94290769647
-1.61741562166
0.0119643130753
-0.981809977942
2.80973383443
-2.59787381998
-2.27655301154
-1.87795908887
-2.10667452144
1.71658567059
1.74772638251
-1.47814606094
2.15539782352
-3.3023111113
-3.07429470078
0.400293148977
-0.269119911546
-1.64669020466
1.67423511676
1.89007236805
-1.10954917344
0.339931189212
-0.903820418659
-0.0370105477024
-2.93546111968
-2.23968821676
-1.53663424196
2.68363634815
-1.58888919992
2.15575490607
-0.533625787542
1.28808025163
-2.45033387034
1.55357368568
-1.03792156924
-0.477460172913
-0.603480603197
-1.07771042424
1.73902184162
-2.60911108682
0.857391131827
2.1491326854
2.01295150823
-0.0405295983661
-2.89481821134
2.63732806513
0.794280051535
2.48940354306
0.189756341894
1.75571208957
-0.244911736557
-2.45900524252
0.797276514949
-0.832715800816
-1.20738115101
-2.66117844461
2.29974624887
1.19795072751
-0.0218868939319
0.966746842297
-0.61422923362
1.52208100995
-1.73454323034
1.17117191905
-3.95425843235
-0.499533888567
0.0937718835195
-0.895268022465
-0.643704318748
1.92778362792
-1.40344293721
1.9782065057
-0.386410854256
1.40973554785
0.362501551518
2.05547020152
-2.65480096843
-3.56890020791
-1.08753398514
-1.37937632805
1.21519875234
0.0470776546663
-0.681393840052
-0.84819275107
1.97578494474
-1.60056237127
0.812446318425
-0.267970927162
-0.59392618315
0.485942909248
0.205216235319
-2.12916154712
-0.476002313306
2.45227157093
0.413464404139
-1.53341082519
3.93744945022
-1.04769799526
0.882661207975
-1.84097018212
-2.75993800483
2.3754692032
0.735484726583
2.81392994273
-1.82501548972
-0.608252549922
3.18667880689
-1.66874235316
1.06440119575
-2.89011162948
0.994179846822
-0.0769532587844
-1.83478062998
1.25850334615
-0.753937901134
-1.61389352643
-0.956844289841
-0.9504085003
0.567114343988
-2.49977971483
-2.57669974784
2.15241227207
0.368118286783
2.47518289628
1.98960405218
0.702661579387
-1.61617057679
0.806537634662
0.0506598127589
-2.40354944979
2.83466086094
1.8240782831
-1.04752369226
0.824887349604
3.52597296964
-0.576272115424
-0.155996732455
2.08671406832
0.219014702067
-0.0668406885718
-1.04209604795
2.11155193183
-1.03962419812
2.12925839382
-1.21311142462
-3.06141944912
0.147240237419
-0.707975628978
0.671827806481
1.08943509097
-0.677984636958
4.18546141279
1.545628252
-3.31125158465
-1.85089653801
-0.0758274039466
-0.000264192425471
-2.67038369646
1.09542941446
1.07825835947
0.142783302116
-1.15156189129
1.05401915691
-0.992252504104
-0.844450864565
1.91812812277
-0.894671845686
0.606958210136
1.23409964438
2.43737861025
-0.515428209558
-0.584489106687
1.37821068323
0.958072529209
-0.512348381442
-0.640392774637
-0.0237323074471
1.46499715508
-2.16046976021
1.39777300624
-0.516361904712
-0.409902085877
-0.627753915036
0.268722202505
1.55877610341
2.40770709143
1.22467145146
-2.10483307202
2.51740684664
0.239380445337
1.80982046458
1.3363833518
2.80789578932
-1.3606503974
-1.11362186385
-3.2423468429
0.965681087883
-1.52356457536
0.994453482133
2.01147387129
2.54321630389
-0.143482758364
1.08493575071
-0.548202026415
2.52446689434
-0.270753623586
2.60153489092
1.19708210974
2.14502695113
-2.18801272402
-1.24463076247
-0.271902439466
-0.60370229109
2.85374339821
-1.56642145155
-0.995627025696
2.19333101428
0.18459176636
0.707017599428
-2.36835448939
-1.21658512527
-0.0531088725184
2.90174075304
-2.48423797845
2.03278101149
-2.27506078817
2.21249898808
0.290271563379
-1.31873683543
1.36939615461
-2.51124711222
-0.644960523844
-2.06398460559
-0.188120586175
-0.61186602292
3.4248561933
1.13420591273
-0.0385296175812
-0.761531322331
-1.2554765009
-1.26890149873
1.13115217455
-1.71946274954
0.560727272754
-2.2631259798
1.33416224993
-1.29509373355
-2.71553642509
-1.93116781384
-1.98829454164
-0.286202025162
-0.237519582148
-1.5431379193
2.0019286357
-2.68574967263
-0.814048872176
-2.28912199047
-1.29753106841
-1.82827441208
-1.57146485162
-1.70204023102
1.33875936558
-0.605098085204
-0.440014175032
-1.25045628293
-2.05461134795
-0.701264369036
2.0349358461
0.804643754911
1.84223661129
2.5883429115
1.25739098332
-1.60313851463
-1.66462139779
2.50987771397
-1.76270167322
-0.320327254498
1.95067935639
-0.843920957417
-1.35810536723
2.48475527751
-2.98213226466
2.0309883806
0.365144062326
1.02831749077
2.33944817073
0.67153742052
2.20057160459
-2.58877685588
-0.485452973859
-1.39357558711
-2.08977411639
-3.25620812979
1.93685840101
-0.753409770144
-0.509593852093
2.61261460698
-0.270365424204
-2.31731146296
0.837842726563
-1.4105683147
5.50016902521
-0.203080375841
0.326040228714
1.44162843129
2.39686955859
-1.98321564574
-0.418180029814
-1.77580420594
-0.701789012046
-2.3177887294
0.535958013771
2.69693009541
1.70563977867
2.46835601374
-1.26111917438
2.71076128023
-0.609019353111
2.08188482358
2.24103443443
2.46831285191
0.810459703328
-2.49707485919
-0.219069849243
-1.06876018571
-1.32157287658
-0.214081140601
-1.7769690376
1.00904157686
-2.16048239318
0.536510455653
0.882742220651
-0.221134505385
-0.440622663707
0.958426236169
2.19384587614
0.472143181979
-0.686842629627
1.19533983845
-1.19595296321
1.91092574365
-0.914273276678
1.63838610535
-2.89744552186
-2.45385044384
0.214102761847
-2.59004917134
3.34626085725
0.102386142877
-1.51903970546
-2.45825230622
-1.42045485183
2.06763697989
2.21491899051
-1.64593696857
-0.909190827686
2.06275752463
1.40616047569
-1.23557485735
0.274781439771
-1.49305886485
-0.555356657599
-0.512028831296
-0.622969565253
0.964221006014
1.16628746302
-3.34798131714
-0.121761407158
-0.288939215482
-1.14739255073
-1.99222662749
-3.0514408654
0.683566629422
1.49941877062
1.15080527043
-0.150672728699
-1.76074408982
-0.478539233219
-1.67874148845
0.242307334218
2.07098877626
-0.989661243167
1.44595336985
0.590732758031
0.583650883123
1.21189696891
-2.33559037451
3.28726895966
1.9249380108
0.364528292966
1.1722135549
-0.551566548198
1.90020056325
0.500762150799
-1.52442096439
1.4862767967
-3.16342237223
1.09800042671
0.161134202954
-1.45769193833
0.721339598754
-2.33108464585
1.22617112478
-0.739124690116
-0.552149718495
1.69844105634
2.5417851125
-2.38847577496
0.893638993871
1.67170231642
0.670813390186
-2.55563914152
-2.33002544756
2.19504235162
2.31941135429
2.2193417622
1.33887764382
1.04324543428
-1.34828130567
0.622060953421
-1.64909700897
-1.05794762545
3.04479126773
0.910818846986
-1.31713281996
-0.734412825131
1.24321214157
-2.74817518657
-0.926995417219
-0.190645875641
-1.79870567989
-0.0609510639985
-0.193809600753
-1.39436921626
-0.622407867509
0.56533705289
1.49413051993
1.60676315671
-0.0468205303094
0.738436003466
-1.12309696106
-1.8151480365
-2.11257205909
-2.38370097284
-0.580470329224
-2.39355600194
0.40323429125
3.5356332664
1.00606193747
-1.34563756613
-0.912634206835
0.486248385088
-2.89131883461
-2.47693401201
1.48351811934
-0.0465764227622
0.535536315729
0.426308978041
2.64191447074
-1.35137630473
1.04144388128
1.03919641768
2.03982452379
-0.641693061094
-2.94700398676
0.354313900775
-1.72310239927
1.88759451461
0.802175998235
-2.46163229781
-2.05758633579
-2.85315293941
0.497688422596
2.74607477374
2.45924172595
-0.888708620407
-0.585453808228
-1.90955787595
-0.0434273388729
2.34565659026
-0.259347553727
-2.01465602335
2.07240410929
0.587634207302
-1.68516636952
-1.90451038456
2.50519363728
-1.33665861448
-0.401475503711
-0.216485146438
1.19924063831
-0.605768381332
3.4971663156
0.182163529279
-2.86227819012
2.28056186996
-0.422489149399
1.89938973926
0.0335918259907
-0.592388918941
-0.574208774041
-0.0767884282391
1.28540959715
1.09096459802
-1.03526510427
1.96950890217
1.47719061851
-1.51230954258
-1.75450813179
0.828989764423
-0.108463467463
-0.65195725625
1.30974274136
0.968690901824
1.44046922258
-1.7835457509
-0.213757934878
2.68980727908
-1.65824265769
-2.87856557161
-0.898930469919
-0.43263742047
-1.08464721389
2.15002693801
-1.21962478427
-3.14185852959
0.324076388313
2.04419786245
-1.00084025041
-1.74506237552
-1.47599707944
0.15834580727
0.381307583556
-0.403060863505
1.98979581719
-2.55669923093
-0.858895670857
-1.2742527158
-0.183427005942
2.56221876355
-2.40854632106
1.87767308145
2.13975904899
2.09508274846
-1.65226252064
-0.32287663199
2.20948172387
2.37851374764
0.121711427228
-0.190589403104
1.63245394524
1.75488767539
0.464207872569
0.488145580779
1.5666258476
-2.1434212778
-0.729097848221
-1.20224479242
-2.57603180293
-1.09580821058
-0.468871294588
0.0377227911856
2.0562238766
1.63655972736
-1.75873934604
1.351196066
0.373900286808
-0.0577678427028
2.22403456126
-1.40629040735
-0.494722640118
-0.808888840834
-1.98305433113
2.6429223404
0.295733674058
-2.59491922449
0.815622738594
1.88864126044
-1.60795569001
-2.55762721881
-1.47055221925
2.4582719481
-0.934868015821
-0.676509322142
1.4425710503
0.910203522392
-0.96071239997
0.615375253085
1.53549194317
-1.06973919023
-0.764847382513
1.72623722075
1.96399476779
-3.28864014282
-0.591086593645
1.15606456972
-0.794075297978
-0.0254993944748
-0.0258395830494
1.88977196219
3.43013866565
-1.01467551161
2.0931815009
0.384006241423
0.0571373376941
-0.984273720156
-2.34267679865
-1.38280331325
-0.629999170775
2.65487919159
2.36511531279
0.207275571453
2.19129191016
-1.53087503609
1.85777838354
-2.42157817038
-2.47684084785
-0.0386723734146
2.94783670706
-0.350669529408
1.35249434275
1.28020282054
-2.08682866176
-1.19533647957
-0.975044195477
2.55488258197
1.43638921243
2.21984774825
0.382260619939
-2.55295512024
-1.15556871477
-1.49472992351
-1.47881512909
-2.07554095106
2.31342859536
-0.146753027537
0.336907306858
3.29078079133
0.112377228528
1.87515419808
0.597559585921
-1.71761713471
-1.2543313823
2.33768674128
1.31546029626
1.44975858368
-3.1807642375
-2.3221479137
-2.14163622579
-0.20754527049
-2.88941514608
0.339228799167
1.47069372405
0.0974230545656
0.208138309698
-0.508362400656
-1.35679724322
2.06739544529
-0.795413017878
2.04182162804
0.744709619344
0.263391828441
1.28197578277
-1.76143336508
2.70538819987
-2.86983429174
-2.40136478677
-0.58803866807
0.494038524233
-1.28230603873
-0.106576836657
1.08641192529
0.395181020819
0.0662684789838
-1.34970800314
-1.15602344709
1.77374338389
-2.52051466793
-1.71909536977
0.0884635153135
3.14608799197
0.254592311269
-1.44176828481
-0.102860907225
1.74494438371
2.19116935748
-0.4977247313
0.949787971286
-0.909258650019
2.13502232596
2.93763049737
0.139505185847
-1.87059120287
-1.88461864903
1.99414778644
0.827430319428
0.130407266122
-1.20292827653
-1.68915522157
2.43442054303
-0.123882693907
0.945117815116
-0.312909011856
-0.62123526146
0.264951400262
2.7416262607
1.85841314332
1.67903065367
-0.691751695185
1.2367629459
-1.41156300252
0.116006381906
0.693966902723
-1.2000090732
-0.0828634202281
0.370075930558
-0.453491399426
1.82361896094
2.89446059452
-2.98899619023
1.28768415566
-1.5110951265
-2.57330872427
0.44728910512
4.48192481792
-0.982353555626
-0.64788170135
2.53297091479
1.5303250581
-1.07533310229
0.0244209895666
-0.544775572647
-1.40117081284
1.77059181932
-0.315483717095
-2.64768322207
-1.34419956645
0.740872545216
-0.87028276776
1.57043973918
-1.6694162087
1.22695014895
-0.642765800266
0.847618594262
-2.07020113665
-2.19293042216
-1.04679157763
-2.78462921646
1.54544207402
-2.17633915567
1.8154495441
0.954867697553
0.308682453556
0.470061472787
0.224722096948
-1.19177542709
-3.07775772241
2.20817098354
2.70450843261
-1.27229215458
-0.126720144781
1.80083987838
2.21504935466
0.466518552823
1.97585788836
2.53807498471
-0.779385313446
2.46779726163
2.14608543501
3.25503429189
1.3784887665
1.8118232316
-2.95635749631
-0.559215642461
0.200142108647
0.127535340554
-0.311600235862
-1.78046266964
-2.86843894401
2.3166158575
-1.80967885624
1.60084109642
1.83269766338
-2.53950298788
-2.47961804318
1.14811269992
-0.417672561991
-0.390597834323
1.11186921189
-0.519556682549
0.42970119101
-1.1948545006
-0.709392888315
0.296180240221
-3.16914248302
-2.28419577831
-2.52502301704
-0.322484196057
-2.89959277641
3.03136543988
0.419570986133
-1.39800324579
0.448360250531
1.24348529156
0.3783839893
1.75593325454
-2.70005514856
-2.17015707902
1.48121307736
-2.55869108353
0.529274912532
0.280394893552
-1.43214789761
1.54416298578
-3.22009620663
0.0864316330251
1.82187685162
-0.375261418001
1.18783199451
2.26279434334
-2.04310194215
0.640859568079
1.04857807981
-0.936621060482
-1.78382203269
0.888923986469
0.475040038614
1.99413445709
0.0813858218868
0.077046830258
2.06742932639
0.79524616151
-2.1291072228
0.413673101162
1.85657183668
1.02793967886
2.41901003908
0.82003799499
-1.57643766412
0.889071126079
-2.73592972201
0.73907420402
-1.57912279771
-0.0159442532512
0.428045114014
-0.777957769981
0.61410085338
-0.241672419135
2.48935619211
-2.36673249454
0.113080627829
1.12874081657
-2.18377165345
-0.999885954605
2.27939461095
-0.553204887462
1.1342690956
1.49415970563
0.221621876208
2.10790951068
0.519073000528
-2.44315093409
1.24308258679
0.703107614419
-0.699305088575
0.147355037776
-1.76601972339
-1.29158650857
1.44293459262
-1.55353256403
-1.95355738392
0.427756441039
-1.02415118547
0.87968983458
2.00217500349
-1.86196287787
1.01077794777
3.44523952868
1.43400615003
-2.53783484327
0.527566271095
1.09296284525
-1.30843319268
0.265434107419
0.709152775895
2.82036613497
-0.502483645639
0.779429984778
1.97497150403
2.78735834928
0.568458773316
-0.446237767568
-0.427112798852
-1.79817631387
2.71674793734
2.63970270089
2.58337099855
-1.59319975014
2.40547260759
1.86463029163
-3.4436794088
-0.810653051091
-1.22107754238
-1.74941516876
1.69720366602
-2.36356022865
-2.36975035824
2.87755280333
-0.597192771017
-0.718194373499
-1.77068494102
0.663409921281
1.59622829091
2.59825530891
-1.34328209772
0.840538740894
-0.841787531123
0.449665545839
0.786019393519
0.524167110196
-0.643254395748
-1.64667440466
-0.140483859924
-1.27760686021
2.99315007956
-2.91026594461
-3.7449562324
-0.711667126701
-1.42749646327
2.63768408368
-2.15078335654
-1.01517126018
-2.98928259651
-1.04470305681
-0.62665214922
-0.80339320794
-2.41409654714
-2.00158138769
-2.93689259482
1.0361086589
1.80592530878
-1.13310760206
-0.410864247879
-0.473150217843
0.948314554148
1.05979234054
2.67726129016
0.34527701984
-0.412080119442
-2.25675409073
0.221804257834
1.88664676829
-1.48102250696
-3.03598904446
2.46235607246
1.99226994849
-0.879674365699
2.12118005442
-1.73567687226
2.87689559846
2.88823739884
0.359183798413
-3.40689658521
-1.18367946356
-0.940803050738
-3.63239318985
-1.71987551967
-1.2177976958
0.823901937515
-0.165798627565
-2.95011135992
0.391619846593
-1.23605387749
-0.752422441208
-1.5540781309
1.39795690017
-2.49212457818
-1.64113771494
0.565397192066
-2.29487075096
-2.06038121251
2.84078448621
-0.760165335596
0.841953461721
-1.2244373376
-0.989488946968
1.46190314484
2.20068500488
1.85164966083
-0.915354278216
0.779081713884
-0.752698364752
-1.1156081947
1.74176237211
2.17371515484
-2.34900733457
0.576133669581
-0.729925857152
2.47902685887
-0.804118330475
-2.88887149253
-0.146103911404
-1.07933378863
-2.85535821107
-1.107999168
0.652307152691
-0.435386816432
-3.09953599813
1.21855405468
1.32872939547
-0.198403998145
0.0991409840203
2.09111593484
0.21064110546
-0.12301410212
-0.766340642085
2.21495853395
0.331020420489
-0.688686623181
0.705264346061
1.37473638248
-0.476164627338
3.73957738695
-0.447567544223
-1.95995532325
-1.00990230595
1.43388727119
1.15836220441
-1.14179767756
3.62892338053
-0.256439088772
-0.876117067701
-3.09677830847
2.72224773345
-1.35588365157
1.6666131233
-2.41949326915
1.74815074002
1.80749957107
0.630724493461
-1.20959551824
0.246404322694
3.76939291629
-0.710664913912
0.924768870617
-0.0651276306153
-0.250061025095
2.41788799766
-0.469021395284
-2.42068122197
0.0604685569018
-0.638140658821
-0.777525210385
-0.934531735707
-2.44829788401
1.93297760288
0.982612945161
2.02200808423
1.09132688968
-0.777832902794
2.97370322978
-2.22837040876
-0.985408654281
-1.31134126451
-1.0687538628
0.386969153644
-1.88651551428
1.78229969905
0.454457032151
0.396894992479
-2.09996333803
-2.72512107921
-3.06606492533
2.07572730941
1.90490969956
0.121104275091
-1.59876127611
2.9235961542
-1.02323831436
3.1025486118
-1.72292308426
-0.566567994194
1.62632002324
-0.12494673512
0.928558581416
0.586077987184
1.14964189085
-1.45458917959
0.672296967796
2.19253170735
1.7349621714
0.83579342592
1.35382364293
-1.06518162541
-2.90413324779
1.01120200396
0.404490448297
2.5099867404
-0.00492060457966
0.517616708231
-0.725096536455
-1.38975365937
2.56577419975
-0.0174172743466
-1.41628005002
-1.00404221435
1.69342200833
-0.365890082689
1.36478708113
-1.90645381313
-0.991280257475
0.122282307202
1.04565244924
-1.65677374321
1.48292936679
-0.453560858783
-1.11414056487
-1.02874688998
0.308916183919
-1.44461184213
-1.0669840344
1.59200945314
0.602309015696
1.48044787917
1.80201544988
1.04494909503
2.7648278979
0.187450681002
2.66375044614
-1.33430365539
-2.5848936302
1.73914803758
-0.707736208476
2.10730946665
2.59944682105
0.432668673037
2.09183969991
2.30728865209
3.62765999009
2.32322781778
1.36590127174
-0.0555728340326
-0.985808564373
4.38425202833
-0.573513811631
-0.159864050398
-1.08666167048
-3.25385047097
-1.05240212163
-0.423486324571
-0.446005290551
-0.763647484677
1.99461907268
1.78373693375
-1.65765187661
3.15160944787
2.21967858712
1.46922244121
-1.63065760508
2.112628486
-0.982837873978
-2.01093290427
1.16632332447
-1.09799034546
-1.45490953512
-2.4579350606
-0.282251726362
-0.277471175849
3.03774408163
-1.59137931983
-0.842283935482
0.116249386427
-1.10851769315
1.38774094678
-0.573787437286
-1.94393007561
0.327204521399
-1.76780460157
1.68561826795
0.279201548282
-1.27637593454
1.26784252756
-1.46459065924
-2.65087167326
-2.01979716637
-0.517379217777
-1.39946732933
0.97910176207
2.44074980321
-0.414667275568
0.271451910896
0.994098588113
-0.629627961941
1.14526397773
1.44794208065
-1.81314171941
-0.750597952091
0.32625729295
1.52481346188
-3.24469348161
3.18879210334
1.20130410735
2.34474574916
1.43922458321
1.86584500325
-1.91640512691
0.724869317787
-0.573006178723
-0.879115230705
1.83588017624
1.80603416269
1.85691088782
-1.00956828826
-1.04007937076
-0.0105579365551
2.06748213691
-0.286000210944
-0.395458082786
-1.43037857672
-0.605001043354
0.52935834154
1.4729006462
0.0135398479522
2.24425522676
-2.96922662365
-1.111823096
2.33030714867
-2.73173368378
-2.57818050926
-0.104427623283
-1.31484489362
1.71495233587
1.12498445004
-1.70810794914
-1.56698635114
2.14702923669
1.66454140999
-1.29418703007
1.70471693045
-1.83799154043
-2.53656874466
-3.72424282211
2.4605475976
0.113965566893
0.18696205566
-1.03167176392
-0.36276004314
-0.61636316237
-1.38835472354
0.710806806054
2.10126133076
0.0893412745284
1.81333186861
0.609080025622
-0.109527491713
0.379801531364
-2.84749598692
0.852092294709
0.492080483346
-1.26808033378
1.10270601714
0.553702579031
1.24792702787
-2.68673677826
4.33090924718
1.86252082881
-2.75369554435
1.51101106002
0.991933862038
-1.50247710542
0.883266226492
-1.54748277735
1.3543064586
-3.13097194283
0.352065309659
-1.36211649418
-2.09097310131
0.470870334764
1.14510130794
1.29193128091
-0.33407838018
-1.90566712613
0.902134644467
1.49071933535
0.329915483317
-1.32327757627
0.0351215683742
-0.472491092113
0.432741732782
-1.22829476606
0.3784030985
-0.0843780027016
0.571608782177
0.583979432004
3.345762812
0.250566316802
-3.16412441754
2.49645026184
-0.804999519994
-0.247259978683
-0.254727764966
1.89687605564
-0.628088134798
1.20079538031
-1.07009879858
-0.739053261987
-2.46774409521
0.33649117781
0.535835265834
-0.591434084037
-0.198976188201
-0.169916484263
-1.51403644137
-2.49942922136
2.75828893848
1.24261477883
-1.67875792226
-1.76304020207
0.291603727008
-1.43511341779
-0.096046437047
0.977458594346
-0.400325036341
-1.49879440178
1.81215491466
1.53869873906
-1.96397743017
-1.79018726039
1.47794300739
-2.29471036233
2.1625987656
1.69351795368
0.623795047722
1.02580264793
1.76162195918
-0.677252026062
-0.462381283788
0.495976817933
1.97752745196
-0.161904385502
-1.32287117149
0.701471991793
0.953302869366
-0.25647834516
0.0649404332424
-1.24042258811
-2.08956584177
-2.30125059034
2.68980009931
-2.19412467206
-1.38136825686
2.66725000133
-1.0639279755
-0.0814702257295
-2.03899225409
-0.756649696114
1.92684377784
0.228221416542
2.1450682004
0.674054379577
-1.07199935845
-1.57164874224
2.46971078272
0.177292103519
-2.72406411184
-0.446599239881
2.16638982535
-2.44116098014
-0.534225534455
-0.420902284226
-0.870788158951
-4.41582912584
-1.14967752317
-0.429697908365
1.81292755122
0.534366624387
-1.72893123397
-2.16119109896
0.177590918666
0.876519413401
1.36006636
-3.95114259755
-1.10448926533
-2.09338019562
1.96654056432
3.00215679127
2.36319603939
1.46072405291
0.764211842714
-1.24784228916
-0.185438332357
-0.950399966489
1.68852985811
-0.493874693482
3.98296764735
-2.36454814309
1.39126327533
0.0307758119377
-0.597856575318
-1.27261324103
1.1372878374
0.146218310432
0.575760579535
0.776588674893
1.98582899419
1.52633415666
-0.361507691977
-2.24168087354
-2.25026278489
-1.38014543873
0.771800017189
1.37850330454
-1.81910115535
-1.27530163592
1.25059762418
-1.89662706638
1.56634172885
2.09662363412
2.13974161054
-0.244554034424
-2.09476745745
0.518997359137
-1.65178003061
3.6251859203
-1.43926811175
2.35045505574
-2.74175131746
-2.99348153441
-0.858679650702
-1.62983612356
1.12628785753
-2.23313889837
-1.71292524604
2.26461552029
-1.55782778005
-0.00358365074488
-0.633007703221
2.16941736452
-2.72218620669
0.796855466623
-0.778432597125
-1.16577002708
-2.70644744603
3.25014246136
0.00735761897717
1.70762178005
-0.39372047053
-1.83812273797
-2.12756627528
0.729003051748
-0.550119955703
2.78862354166
0.0142016367914
0.963315375651
0.547214107406
2.42294336035
-0.578077349951
2.46944688452
-0.0511003695075
1.03388641025
-1.96677961979
1.95621530124
0.552830320793
-1.21411914058
2.42732453423
-1.65219869692
-0.134322712142
-0.122046184873
-0.0403040428456
0.179592582326
1.20399058791
-2.35828927468
0.516312546612
0.0945477877825
0.534547187688
0.682444333762
-0.034209441672
1.72497964057
-2.50191116328
-1.56412689329
2.46441747823
-0.0774034960607
0.956376286453
2.98092257513
2.63256999555
-2.5918608404
2.8351969845
-1.26757519383
-0.0459945295443
1.15662414067
0.186331750064
-0.0869000216331
0.845609136818
2.31840489282
-2.74331762713
1.85469033058
-1.80784103468
-1.32575480296
-1.69708937066
-0.107932372365
-3.81354570289
-2.33175125637
1.47138141073
0.0564753345511
-0.161674151259
-0.00139570298929
-2.47297482992
-0.76250896439
0.234360376236
1.87187506974
1.96765692493
1.09413755272
0.549604560768
2.15359088881
-0.478812921047
-0.773108187615
-2.10085168094
-1.30987950251
1.16602073066
-0.541358674872
1.69870950818
-1.17891445868
1.68358429438
0.445287257461
-1.82289628786
-0.922138143377
-1.90925910097
4.13447006437
1.83148797013
-1.81048305017
-1.73662956177
-0.766773330306
3.06345436892
1.15434801219
0.270898839612
1.01707906617
1.76463319626
3.01468153726
3.08474999492
2.07807535171
-2.07096757894
-5.24081551956
2.78769674335
1.30307857914
2.48369825913
-0.638354319938
0.75665078252
-1.4759074376
0.150023894367
-2.1446929536
0.704055395472
2.21547505865
-0.554143613
-0.414460004729
2.20673602386
2.51734612742
-1.07161140288
-1.13075850963
0.596596163922
-0.0732186560363
-2.68667202068
2.10093695889
2.13491970187
1.14098390996
-0.266404800016
1.85697661817
-0.540577491638
2.06062961804
0.718325680503
1.96985083005
-0.894246533964
-0.573327017369
-0.646274926709
-0.676193878987
-0.4036168201
-1.93816097994
-0.544619769474
1.12685255444
-2.36489665559
1.76755095935
1.1243192807
-2.4235403528
-0.0653516430304
-2.13017051675
-0.18608615583
2.39558686734
-2.32233202373
-2.18848584832
1.19643472344
-2.57215959881
-0.856684815422
-0.191827046756
-0.324088198433
1.18872298901
-1.71103871991
-1.83065824472
0.568698080374
-1.40316031309
2.11660324482
2.19235392526
0.64790413855
-0.655461074331
-0.295821359371
0.279156194611
1.6250396871
-1.31823115403
2.81399293587
0.668061934632
-1.21928089253
-2.92908418719
-1.32258997388
-1.6552534716
1.35162109349
0.817573131282
0.200009860435
1.47809485193
-1.17615654362
1.77210431156
0.765578126432
-0.347225193909
1.33417560678
-0.234588809141
-0.398571272222
1.16146818752
-1.36056328227
0.0442379103395
2.72148148668
-1.50247150199
-3.1854028361
-0.342742293133
-1.04488042857
-0.706399908434
-0.808871826208
2.11017572954
-2.86371208114
-3.18223872553
0.191092040014
0.992219647066
1.24504801248
-0.668765031996
-3.21388837421
0.058736058204
-0.0799276843215
-0.752472646533
-0.255620355083
1.49369434379
0.983471074752
-3.2684554547
0.939818565627
0.116549669363
-3.95916612272
1.05101334838
0.105153951976
1.1878368587
-1.12756587682
0.289228722381
2.06499532447
-0.447004118617
1.08105856832
-1.53625152044
2.50976819884
-0.631454592599
1.2677859702
1.69796693374
3.03982596922
1.2694078123
-2.98886671443
0.762126921294
-1.87800249961
-1.0031728982
1.93318068377
-1.73731344657
-1.92234047392
0.266593140855
2.33858419521
1.27938342151
-2.1180491173
-0.0733014020492
-0.582968996546
0.0201920259936
-0.430708582095
-1.74596376524
2.88921190405
2.78449729942
-0.371037085399
2.802675144
0.533568983403
-0.0397895324229
-0.310633993662
0.996568552286
-0.542636806362
1.97334834996
0.117130949653
1.39949632459
2.3775574785
2.01185652773
-1.96961335966
1.51652903389
1.69958845884
1.6998584467
-1.86641510947
-0.090267693194
-1.29007061377
2.55346725756
0.164380956392
0.97749986838
-1.48458255312
-1.02637783176
1.38199884633
1.28965828779
-1.92660367598
0.49235326624
0.250363670744
0.850459835836
-1.81366191662
1.64280245071
-2.87523960415
-1.91852045636
1.02144362358
2.54828065374
-2.30053299919
-0.47756042874
-2.75077953039
-3.10007934747
2.03096561551
1.87269645179
-0.815870067111
-0.585178262138
0.443617471439
-0.410734898719
-3.43597446491
0.258151916309
-0.524382672894
1.46794577885
0.832295469587
1.01644453524
-1.17568451087
-0.102035005861
-0.93600499021
-1.84299982052
-0.627725294732
-0.170957496853
1.62333210656
-1.62211688006
0.779428811057
-2.12505247755
-2.72467339983
2.46307084855
-1.2638399971
0.163238093602
-0.84382064434
0.949116049073
-1.52586304125
-1.58718694391
-2.66410412306
1.54607061063
1.3343713078
-0.219344928591
0.349293137561
0.926806768077
0.539402968531
-1.42396287305
-0.472657057643
-0.281558287136
-0.0456143295915
-1.00575382095
-2.18241036996
-1.5440603509
0.37179930081
2.42990790181
1.49704352488
0.557912869584
1.80259583167
0.912740980449
-0.791889933611
0.228696890852
-0.125274405409
-0.507321694038
-1.12688912331
0.142341317358
-2.08692410701
0.0443652528851
-3.59425650849
-1.74676186595
-0.888427511089
0.83551607872
1.28298402857
1.67310253059
1.32632544563
-1.83926317108
0.351987264269
0.469584594668
-0.434236991073
-0.0948955230273
1.4248137006
0.439066061067
1.32985026016
-0.434335673198
-0.370708742894
-0.695596572897
-2.48902611474
-2.47573626683
-0.229163673305
-2.69177212607
-1.47588015296
0.595115696846
-0.845674744339
0.219883742503
0.331958886555
1.37008926495
-2.1729540987
0.387943382466
1.24440812532
-0.10810559574
-0.259031669207
-1.46383771557
1.14704179627
-1.73046884106
2.08472882362
-3.01624804972
1.68728510199
-3.2984820899
-0.800183852471
3.06768457362
-0.603059710161
1.11037962033
-1.22073272014
-2.33186003932
-0.735444477302
1.29544126267
-1.07967320129
2.3278504075
2.79427845551
-0.00719841559637
-1.12400104311
-0.20275198863
2.09494217052
-1.19859689568
-0.544729004915
0.194340644302
-2.81792250002
0.770252374116
-0.11208856297
-2.14837963122
2.92328492773
-1.70319118786
-1.64673794929
-1.30640132941
1.15070295385
0.487563084968
-0.720514162263
1.16225475245
-0.409821687015
0.820600024373
-2.20536291616
3.32168040906
-0.934914897214
-1.00113286029
0.217486964471
2.43666364819
-0.628166439359
0.230864169474
-0.176645736609
-1.53693607368
0.72511976842
1.36553894619
-1.85484845666
-0.620698012838
2.32574606042
-2.65319130765
1.93487093746
-1.88868768395
-1.68680971761
-0.362606343068
1.06815697107
0.191158954086
1.08314463241
-0.417444884513
0.654311782992
-1.11791709666
-0.796829529229
2.4937833211
0.506929401048
-1.61501942993
1.43226337692
1.22222908306
-0.992269401296
-1.04593350562
-1.64524511222
-0.530382885344
1.5755059443
1.28052239115
-0.358069575212
1.86583446372
-0.262749291936
0.00582704338242
2.64120550571
1.5324777328
-2.64515154505
-0.746494244959
2.48855886966
3.45082374673
1.1663675564
0.813247899814
0.460607965732
2.24450485367
-2.28687808124
-0.0326763804005
-0.75135508281
-0.432784229919
-0.204151915737
-0.564021226949
-2.2109083481
-2.10474083294
1.0242859388
0.273033201412
1.71359577229
-1.94940947861
-1.07583389015
1.49761594728
-0.983360695151
2.95017893856
-1.55566634078
-1.38796146935
-1.0030407074
-2.86659553666
-1.71992293917
2.02138318789
0.216788271344
1.78768189934
1.07064616017
-0.0183884733123
1.98674830918
2.05011092358
2.1166392711
0.711462686105
0.865107628688
-1.3096716396
-2.5391957972
1.08386351347
-0.0967982316821
-0.131478483774
-0.492214234749
-1.5885723955
-2.19227578186
2.64592749071
2.41394096731
-2.69349903724
2.49920186397
0.523375770964
-2.49372272381
1.65483022738
-1.10635151863
1.46943152781
-0.385400027022
2.78506342661
0.83597479869
-0.647918354732
-0.741985024601
0.137205211789
1.43686546205
1.8155924485
1.93784870848
-0.279826528516
-1.06746929894
-3.11356131598
2.58651373113
3.86829044769
1.19956529155
1.69167812345
-0.3310533313
-2.62886442225
-2.89983549853
-0.50100108468
-0.413800739415
0.907534251514
0.714947177465
-1.40778991545
0.27749420039
-3.33906019103
-3.10412579574
-2.61688028221
1.59881854089
0.252416814303
-1.68167841742
-2.05115974148
-2.28389160033
-0.485584067131
-0.0304730552272
-0.839938638607
-1.62568503292
-0.894658930755
2.81964127565
-4.63085961325
-0.612224691443
2.15685219199
-1.00167227572
-1.17878419487
-1.67095515185
-1.10411554278
-1.42329058328
-1.51928639133
-0.24032335578
0.370082246545
-0.012686816624
1.7038689635
1.93642074221
2.30509138154
1.77214563924
-1.32398269891
0.98220584729
0.206868595233
0.74336782487
-0.915093764272
-1.64252763721
-0.34691205515
-1.46568154264
-1.10643331832
1.54597382983
-2.91093677775
1.43121285933
-1.2912579768
-0.295126290358
-1.30317848093
-0.718652080332
-3.71450255385
-0.489620812669
0.92476573045
-1.40236216719
0.51546420201
-0.747870751023
0.725110409313
1.95960240926
-1.07241732548
1.08562614358
-1.27969274245
2.90582061083
4.02099733342
-2.08619715848
-0.659732852898
2.52108255807
2.23098174228
-2.66680344513
-1.87217756631
1.80731214349
-0.436958172496
-0.0183882165237
0.488932735403
-0.296378875834
-0.626480573658
-0.000642796010938
1.52786720161
1.440981808
1.19165241724
0.782693893427
-0.221108390578
1.13334445807
-0.124576441882
-1.27608052014
-2.71830923441
-0.567910501388
-0.437736736759
2.60513961482
-1.38369865642
-2.17742768113
0.464568904697
-0.686960338481
-1.24427372207
1.30084938
1.59370002757
-3.3533911347
0.821240507774
3.24950468411
2.13177456166
-0.986166072124
0.263626919461
1.65855140064
-2.87571737959
-0.283127338521
-0.497111329767
-2.0349991884
0.957172108771
-1.18261960632
-1.97244145898
0.919727349219
-3.36243734689
0.739432682284
-0.0698650994644
0.189347597036
1.56198123862
1.99600916082
1.71518343995
-1.53135400301
0.215860351436
2.33920684506
-2.24525625579
3.16623812498
1.64395427823
1.47147835817
-1.93635816232
0.698860282869
-0.615651632324
-0.186754360012
-1.13280878283
1.86067605174
1.62231799982
-0.0459296538425
1.75757145276
-1.42915079579
-2.32214429742
1.23360076543
-3.28038717054
0.693870794973
-2.27837995854
-0.498655444355
-2.72160299839
-0.269933997169
-0.717869798619
-2.23174871191
0.45378110229
0.381336213291
1.78099707823
-1.58941813252
-0.705150804409
-1.60227983353
0.567443138158
-2.02146890659
-0.0455176880087
-2.21193983587
-2.93082001902
-1.49417899666
-1.19266100835
2.13067646899
0.885959812684
-1.86594994878
-0.144038229474
-1.71473712093
-1.34450910049
-1.38175646671
1.02573411742
2.50994656861
-1.41608831235
0.577939258611
0.723593431396
-0.247371224532
3.57242426101
0.595688351439
1.11738692332
-2.14379197955
-1.29979845024
2.46226258057
